1_mean,2_mean,3_mean,4_mean,5_mean,6_mean,7_mean,8_mean,1_std,2_std,3_std,4_std,5_std,6_std,7_std,8_std
-0.002931,0.001914,0.008357,0.001991,0.000793,-0.010321,-0.029485,-0.014688,0.493717,0.629205,0.643909,0.650933,0.652793,0.662259,0.699260,0.650122
-0.013428,-0.012395,0.008923,-0.008310,-0.000268,-0.020319,-0.033395,-0.013101,0.443647,0.580280,0.587332,0.605993,0.615580,0.630929,0.691611,0.646626
-0.023132,-0.014806,0.005046,-0.020164,-0.003221,-0.026047,-0.036102,-0.012413,0.435748,0.551053,0.558155,0.582957,0.586275,0.607980,0.685785,0.643969
-0.014008,-0.020415,-0.001884,-0.029976,-0.003225,-0.030215,-0.039918,-0.011567,0.443206,0.539212,0.543060,0.576140,0.567651,0.591300,0.682595,0.640790
-0.013463,-0.028723,-0.006117,-0.035676,-0.005872,-0.034438,-0.043376,-0.009548,0.457293,0.532224,0.533770,0.578189,0.554806,0.578105,0.680730,0.637449
-0.013159,-0.028599,-0.006268,-0.045431,-0.008874,-0.038469,-0.047243,-0.009297,0.468610,0.528468,0.527982,0.580446,0.545400,0.567986,0.680276,0.633290
-0.014951,-0.029903,-0.009177,-0.053091,-0.010436,-0.041274,-0.051472,-0.009138,0.464837,0.526409,0.526547,0.578611,0.539079,0.560638,0.681260,0.630775
-0.016537,-0.034045,-0.009188,-0.055631,-0.012295,-0.045238,-0.054067,-0.006524,0.469583,0.525481,0.524512,0.575079,0.535009,0.554596,0.681206,0.626196
-0.014578,-0.028658,-0.011426,-0.060039,-0.014033,-0.048951,-0.056734,-0.006920,0.475038,0.524686,0.523632,0.572998,0.533648,0.551235,0.680092,0.624900
-0.017158,-0.039046,-0.014539,-0.062847,-0.017540,-0.052494,-0.059721,-0.004286,0.473919,0.527463,0.523418,0.572394,0.532863,0.548412,0.681112,0.621464
-0.011033,-0.035251,-0.016972,-0.064873,-0.020961,-0.054129,-0.062161,-0.002676,0.478618,0.526038,0.523271,0.568492,0.532575,0.547400,0.682123,0.618399
-0.018579,-0.035120,-0.017972,-0.066726,-0.021592,-0.056190,-0.064740,-0.002101,0.478463,0.528765,0.523421,0.573197,0.533833,0.545097,0.683412,0.614040
-0.010952,-0.040913,-0.018088,-0.072031,-0.023399,-0.057982,-0.065696,-0.002169,0.476402,0.531774,0.523383,0.577557,0.535569,0.544604,0.683218,0.613593
-0.009770,-0.039996,-0.018692,-0.073730,-0.022759,-0.060186,-0.068134,-0.001810,0.484374,0.536162,0.522272,0.579525,0.535763,0.544147,0.684701,0.610113
-0.012900,-0.039709,-0.016922,-0.072238,-0.024224,-0.061779,-0.069016,-0.001495,0.485110,0.534686,0.523139,0.579986,0.538623,0.543916,0.683657,0.609158
-0.012685,-0.040967,-0.021412,-0.078513,-0.028106,-0.062917,-0.070478,0.000476,0.489219,0.535157,0.522248,0.586769,0.540586,0.544389,0.684844,0.607382
-0.012409,-0.042919,-0.020626,-0.084515,-0.027913,-0.063725,-0.074458,0.000724,0.487821,0.534519,0.520136,0.592006,0.543673,0.545840,0.684787,0.604881
-0.017379,-0.044679,-0.022441,-0.084208,-0.029338,-0.065443,-0.073291,0.001200,0.487835,0.538237,0.521024,0.596470,0.543556,0.546417,0.685442,0.603194
-0.007381,-0.040350,-0.023823,-0.085275,-0.029526,-0.065744,-0.074393,0.000992,0.487280,0.539374,0.522030,0.596441,0.543988,0.546683,0.684923,0.602027
-0.018199,-0.042780,-0.022385,-0.089732,-0.030432,-0.070127,-0.077275,0.001952,0.489301,0.543795,0.520347,0.597793,0.544393,0.547952,0.685692,0.601276
-0.021699,-0.044357,-0.023442,-0.088964,-0.029868,-0.069312,-0.077350,0.002415,0.494200,0.542549,0.519810,0.597120,0.542865,0.549295,0.684307,0.599686
-0.014721,-0.042248,-0.021546,-0.089293,-0.029184,-0.068412,-0.078042,0.002481,0.488924,0.543197,0.518176,0.595283,0.542068,0.550753,0.685878,0.599666
-0.018599,-0.041705,-0.026315,-0.091450,-0.029638,-0.070308,-0.080273,0.002183,0.495231,0.546532,0.518767,0.597404,0.542236,0.552671,0.684669,0.599216
-0.013071,-0.042280,-0.023959,-0.089040,-0.030225,-0.070769,-0.079338,0.003887,0.492524,0.548562,0.517642,0.590740,0.541470,0.552630,0.686519,0.596479
-0.017136,-0.043595,-0.026849,-0.089006,-0.030215,-0.069373,-0.079970,0.004184,0.485416,0.547572,0.517860,0.591434,0.539607,0.553961,0.685378,0.595291
-0.019942,-0.043939,-0.021897,-0.085591,-0.031865,-0.072120,-0.080952,0.003531,0.492303,0.544510,0.518620,0.589535,0.540086,0.555603,0.686230,0.595194
-0.009836,-0.040440,-0.021689,-0.082540,-0.030511,-0.071538,-0.082390,0.004364,0.482695,0.546899,0.520451,0.582800,0.538990,0.555950,0.685404,0.595629
-0.018424,-0.043739,-0.023780,-0.085140,-0.030763,-0.072418,-0.082961,0.004294,0.486410,0.551714,0.520898,0.583902,0.538937,0.557670,0.685310,0.595045
-0.019411,-0.044481,-0.024223,-0.086140,-0.030973,-0.071291,-0.085054,0.005671,0.496269,0.553411,0.521150,0.586675,0.538187,0.557707,0.684845,0.594599
-0.008744,-0.042056,-0.024517,-0.087002,-0.031515,-0.071792,-0.083095,0.005329,0.489481,0.551273,0.519220,0.585520,0.538896,0.557985,0.685370,0.593497
-0.019860,-0.041271,-0.024294,-0.088306,-0.030734,-0.070435,-0.085442,0.006682,0.489360,0.548427,0.520316,0.581485,0.539637,0.558691,0.684228,0.591589
-0.013752,-0.042281,-0.024489,-0.086548,-0.032625,-0.073633,-0.085091,0.006266,0.489270,0.549071,0.521044,0.578748,0.539577,0.560214,0.685084,0.591520
