1_mean,2_mean,3_mean,4_mean,5_mean,6_mean,7_mean,8_mean,1_std,2_std,3_std,4_std,5_std,6_std,7_std,8_std
-0.002931,0.001914,0.008357,0.001991,0.000793,-0.010321,-0.029485,-0.014688,0.493717,0.629205,0.643909,0.650933,0.652793,0.662259,0.699260,0.650122
-0.013428,-0.012395,0.008923,-0.008310,-0.000268,-0.020319,-0.033395,-0.013101,0.443647,0.580280,0.587332,0.605993,0.615580,0.630929,0.691611,0.646626
-0.023132,-0.014806,0.005046,-0.020164,-0.003221,-0.026047,-0.036102,-0.012413,0.435748,0.551053,0.558155,0.582957,0.586275,0.607980,0.685785,0.643969
-0.014008,-0.020415,-0.001884,-0.029976,-0.003225,-0.030215,-0.039918,-0.011567,0.443206,0.539212,0.543060,0.576140,0.567651,0.591300,0.682595,0.640790
-0.013463,-0.028723,-0.006117,-0.035676,-0.005872,-0.034438,-0.043376,-0.009548,0.457293,0.532224,0.533770,0.578189,0.554806,0.578105,0.680730,0.637449
-0.013159,-0.028599,-0.006268,-0.045431,-0.008874,-0.038469,-0.047243,-0.009297,0.468610,0.528468,0.527982,0.580446,0.545400,0.567986,0.680276,0.633290
-0.014951,-0.029903,-0.009177,-0.053091,-0.010436,-0.041274,-0.051472,-0.009138,0.464837,0.526409,0.526547,0.578611,0.539079,0.560638,0.681260,0.630775
-0.016537,-0.034045,-0.009188,-0.055631,-0.012295,-0.045238,-0.054067,-0.006524,0.469583,0.525481,0.524512,0.575079,0.535009,0.554596,0.681206,0.626196
-0.014578,-0.028658,-0.011426,-0.060039,-0.014033,-0.048951,-0.056734,-0.006920,0.475038,0.524686,0.523632,0.572998,0.533648,0.551235,0.680092,0.624900
-0.017158,-0.039046,-0.014539,-0.062847,-0.017540,-0.052494,-0.059721,-0.004286,0.473919,0.527463,0.523418,0.572394,0.532863,0.548412,0.681112,0.621464
-0.011033,-0.035251,-0.016972,-0.064873,-0.020961,-0.054129,-0.062161,-0.002676,0.478618,0.526038,0.523271,0.568492,0.532575,0.547400,0.682123,0.618399
-0.016666,-0.032151,-0.014404,-0.068413,-0.020583,-0.056342,-0.063622,-0.001695,0.477359,0.527082,0.523120,0.569326,0.533757,0.544462,0.683499,0.615561
-0.011539,-0.043793,-0.017714,-0.071405,-0.021173,-0.057280,-0.066699,-0.001748,0.482364,0.532115,0.522636,0.576979,0.534309,0.544060,0.684703,0.613190
-0.010616,-0.043178,-0.019846,-0.072989,-0.022735,-0.060977,-0.068912,-0.001428,0.484843,0.533382,0.522503,0.577744,0.535135,0.544243,0.684821,0.612614
-0.008552,-0.039028,-0.019817,-0.072014,-0.024680,-0.060702,-0.069383,-0.002474,0.484736,0.535503,0.523484,0.579872,0.538243,0.543268,0.681611,0.610674
-0.009024,-0.044120,-0.021734,-0.076448,-0.027834,-0.063534,-0.072202,0.000208,0.487896,0.540227,0.523467,0.580802,0.539304,0.543701,0.684722,0.607358
-0.005394,-0.042018,-0.022038,-0.083251,-0.025727,-0.063772,-0.074553,0.000260,0.492570,0.537972,0.522064,0.587253,0.541074,0.544715,0.684355,0.605899
-0.016732,-0.043858,-0.021450,-0.085738,-0.027958,-0.065019,-0.074778,0.001912,0.478600,0.537238,0.521144,0.598704,0.541571,0.543517,0.684639,0.602951
-0.019178,-0.042566,-0.025441,-0.084538,-0.028376,-0.066497,-0.076227,0.000755,0.490778,0.539460,0.522498,0.599360,0.541061,0.545519,0.683080,0.602333
-0.011767,-0.043200,-0.023461,-0.088049,-0.030326,-0.067193,-0.077155,0.002844,0.488333,0.540067,0.521675,0.595465,0.541668,0.547259,0.684849,0.598604
-0.011919,-0.040188,-0.026760,-0.091182,-0.030818,-0.071399,-0.078276,0.003249,0.489237,0.542155,0.521917,0.599994,0.541155,0.551446,0.685015,0.597621
-0.016026,-0.047426,-0.023151,-0.088302,-0.028094,-0.068461,-0.077390,0.002846,0.484526,0.545946,0.521193,0.596478,0.539885,0.551433,0.684663,0.595724
-0.015193,-0.042196,-0.024209,-0.088279,-0.028957,-0.069646,-0.078578,0.003269,0.499659,0.546413,0.521380,0.595825,0.540755,0.552247,0.684382,0.595466
-0.013983,-0.040846,-0.024235,-0.090787,-0.029564,-0.068888,-0.079318,0.005559,0.495158,0.546246,0.521556,0.598341,0.539314,0.553581,0.685137,0.592195
-0.016724,-0.041889,-0.026395,-0.091450,-0.030564,-0.072517,-0.080205,0.006877,0.492191,0.546402,0.521819,0.597865,0.540073,0.554763,0.684789,0.592522
-0.019671,-0.039786,-0.020794,-0.089466,-0.031914,-0.071298,-0.081575,0.006596,0.496304,0.549467,0.521131,0.592377,0.541012,0.556640,0.685141,0.590550
-0.008313,-0.044894,-0.021247,-0.083653,-0.030911,-0.071153,-0.082152,0.004927,0.491641,0.549665,0.522097,0.591326,0.539854,0.556529,0.684024,0.592899
-0.016153,-0.044826,-0.023320,-0.089148,-0.030459,-0.070893,-0.083371,0.006422,0.485754,0.547217,0.522692,0.587855,0.539626,0.556845,0.685428,0.591589
-0.027011,-0.045285,-0.025198,-0.085223,-0.030553,-0.071665,-0.084571,0.007642,0.491583,0.547903,0.522411,0.585626,0.539418,0.558620,0.686438,0.590851
-0.010389,-0.043639,-0.025715,-0.086452,-0.032010,-0.073667,-0.082623,0.005361,0.497497,0.548970,0.522042,0.582649,0.540344,0.560559,0.685872,0.590803
-0.018989,-0.043062,-0.024196,-0.090391,-0.031423,-0.070338,-0.084055,0.007463,0.491403,0.551620,0.521141,0.583703,0.539900,0.560082,0.685795,0.588193
-0.007176,-0.043774,-0.025038,-0.087021,-0.031349,-0.072953,-0.084017,0.006433,0.490468,0.553734,0.520686,0.585595,0.539939,0.561882,0.684989,0.589379
